digraph Tree {
0 [label="X[3] <= 8.5000\ngini = 0.902909053838\nsamples = 877982", shape="box"] ;
1 [label="X[3] <= 0.5000\ngini = 0.90088766127\nsamples = 796188", shape="box"] ;
0 -> 1 ;
2 [label="gini = 0.9101\nsamples = 89422\nvalue = [  3.93000000e+02   9.85500000e+03   3.40000000e+01   5.60000000e+01
   3.92900000e+03   2.19000000e+02   1.79000000e+02   4.49800000e+03
   2.43000000e+02   1.00000000e+02   1.30000000e+01   7.30000000e+01
   7.74000000e+02   8.66000000e+02   2.90000000e+01   3.13000000e+02
   1.01180000e+04   1.14000000e+02   5.00000000e+01   5.03800000e+03
   6.09900000e+03   1.70510000e+04   2.00000000e+00   7.00000000e+01
   7.35000000e+02   2.71400000e+03   2.65000000e+02   1.66200000e+03
   3.87000000e+02   2.20000000e+01   3.97000000e+02   3.70000000e+01
   3.90500000e+03   3.00000000e+00   6.36000000e+02   5.35500000e+03
   7.21900000e+03   4.32200000e+03   1.64700000e+03]", shape="box"] ;
1 -> 2 ;
3 [label="gini = 0.8976\nsamples = 706766\nvalue = [  1.06000000e+03   5.93390000e+04   3.53000000e+02   2.18000000e+02
   3.13370000e+04   3.26600000e+03   1.98600000e+03   3.17770000e+04
   3.59800000e+03   9.75000000e+02   2.35000000e+02   3.79000000e+02
   9.27300000e+03   1.46830000e+04   1.05000000e+02   1.81700000e+03
   1.54866000e+05   1.60300000e+03   9.74000000e+02   2.01180000e+04
   7.87380000e+04   9.53930000e+04   1.90000000e+01   6.51000000e+03
   2.26800000e+03   1.80830000e+04   1.67200000e+03   7.59900000e+03
   3.68000000e+03   1.21000000e+02   3.80600000e+03   4.44000000e+02
   2.49940000e+04   3.00000000e+00   5.49800000e+03   3.77530000e+04
   4.55490000e+04   3.05600000e+04   6.11400000e+03]", shape="box"] ;
1 -> 3 ;
4 [label="gini = 0.8817\nsamples = 81794\nvalue = [  6.00000000e+01   7.67800000e+03   1.90000000e+01   1.50000000e+01
   1.48800000e+03   8.33000000e+02   1.03000000e+02   1.76960000e+04
   4.39000000e+02   9.10000000e+01   8.00000000e+00   3.90000000e+01
   5.62000000e+02   1.13000000e+03   1.20000000e+01   2.11000000e+02
   9.90100000e+03   1.86000000e+02   2.01000000e+02   8.33000000e+02
   7.46300000e+03   1.37210000e+04   1.00000000e+00   9.04000000e+02
   1.35000000e+02   2.20200000e+03   9.00000000e+00   7.24000000e+02
   3.20000000e+02   5.00000000e+00   3.36000000e+02   2.70000000e+01
   2.51300000e+03   0.00000000e+00   1.19100000e+03   1.61600000e+03
   1.00400000e+03   7.32400000e+03   7.94000000e+02]", shape="box"] ;
0 -> 4 ;
}